digraph Tree {
node [shape=box] ;
0 [label="X[31] <= -0.057\nmse = 1.003\nsamples = 316\nvalue = -0.02"] ;
1 [label="X[29] <= -0.589\nmse = 0.724\nsamples = 154\nvalue = -0.758"] ;
0 -> 1 [labeldistance=2.5, labelangle=45, headlabel="True"] ;
2 [label="X[31] <= -0.856\nmse = 0.961\nsamples = 52\nvalue = -1.545"] ;
1 -> 2 ;
3 [label="X[24] <= 1.268\nmse = 0.064\nsamples = 26\nvalue = -2.226"] ;
2 -> 3 ;
4 [label="mse = -0.0\nsamples = 23\nvalue = -2.276"] ;
3 -> 4 ;
5 [label="mse = 0.382\nsamples = 3\nvalue = -1.839"] ;
3 -> 5 ;
6 [label="X[2] <= -0.154\nmse = 0.93\nsamples = 26\nvalue = -0.864"] ;
2 -> 6 ;
7 [label="mse = 0.051\nsamples = 11\nvalue = -0.13"] ;
6 -> 7 ;
8 [label="mse = 0.892\nsamples = 15\nvalue = -1.402"] ;
6 -> 8 ;
9 [label="X[31] <= -0.856\nmse = 0.127\nsamples = 102\nvalue = -0.356"] ;
1 -> 9 ;
10 [label="X[25] <= 1.251\nmse = 0.074\nsamples = 23\nvalue = -0.832"] ;
9 -> 10 ;
11 [label="mse = 0.053\nsamples = 18\nvalue = -0.746"] ;
10 -> 11 ;
12 [label="mse = 0.027\nsamples = 5\nvalue = -1.14"] ;
10 -> 12 ;
13 [label="X[31] <= -0.323\nmse = 0.058\nsamples = 79\nvalue = -0.218"] ;
9 -> 13 ;
14 [label="mse = 0.048\nsamples = 48\nvalue = -0.332"] ;
13 -> 14 ;
15 [label="mse = 0.021\nsamples = 31\nvalue = -0.041"] ;
13 -> 15 ;
16 [label="X[31] <= 0.742\nmse = 0.258\nsamples = 162\nvalue = 0.682"] ;
0 -> 16 [labeldistance=2.5, labelangle=-45, headlabel="False"] ;
17 [label="X[31] <= 0.475\nmse = 0.063\nsamples = 95\nvalue = 0.337"] ;
16 -> 17 ;
18 [label="X[31] <= 0.209\nmse = 0.044\nsamples = 66\nvalue = 0.234"] ;
17 -> 18 ;
19 [label="mse = 0.031\nsamples = 29\nvalue = 0.105"] ;
18 -> 19 ;
20 [label="mse = 0.031\nsamples = 37\nvalue = 0.335"] ;
18 -> 20 ;
21 [label="X[27] <= -0.615\nmse = 0.028\nsamples = 29\nvalue = 0.572"] ;
17 -> 21 ;
22 [label="mse = 0.011\nsamples = 8\nvalue = 0.701"] ;
21 -> 22 ;
23 [label="mse = 0.026\nsamples = 21\nvalue = 0.523"] ;
21 -> 23 ;
24 [label="X[31] <= 1.54\nmse = 0.125\nsamples = 67\nvalue = 1.172"] ;
16 -> 24 ;
25 [label="X[31] <= 1.008\nmse = 0.045\nsamples = 52\nvalue = 1.015"] ;
24 -> 25 ;
26 [label="mse = 0.016\nsamples = 17\nvalue = 0.809"] ;
25 -> 26 ;
27 [label="mse = 0.028\nsamples = 35\nvalue = 1.114"] ;
25 -> 27 ;
28 [label="X[30] <= 2.29\nmse = 0.022\nsamples = 15\nvalue = 1.716"] ;
24 -> 28 ;
29 [label="mse = 0.011\nsamples = 13\nvalue = 1.674"] ;
28 -> 29 ;
30 [label="mse = 0.012\nsamples = 2\nvalue = 1.985"] ;
28 -> 30 ;
}